gene	100232	103342	113971	123804	146218	179016	186481	224143	237983	258135	263578	273919	303642	326772	332131	348685	400220	407992	410324	434640	478908	498463	507202	507696	570755	594368	595704	605322	617776	700717	730817	740266	750152	757199	809653	816067	849660	868231	907786	914247	933124	982009	987523	989176	ND5	ND7	ND8
EMB	0.354	-0.009	-0.369	0.171	0.241	-0.223	0.261	0.086	-0.113	-0.085	-0.29	-0.15	-0.581	0.255	-0.312	0.065	0.402	0.244	-0.062	-0.29	-0.555	-0.145	0.462	0.202	0.026	0.308	-0.16	-0.577	0.093	0.554	0.913	0.062	-0.632	-0.321	0.868	0.105	-0.196	0.558	0.186	0.487	-0.031	-0.035	-0.241	-0.855	0.669	0.663	0.625
